digraph Tree {
node [shape=box, fontname="helvetica"] ;
edge [fontname="helvetica"] ;
0 [label="X[3] <= 140.325\ngini = 0.5\nsamples = 167\nvalue = [84, 83]"] ;
1 [label="X[1] <= 139.94\ngini = 0.498\nsamples = 158\nvalue = [84, 74]"] ;
0 -> 1 [labeldistance=2.5, labelangle=45, headlabel="True"] ;
2 [label="X[3] <= 120.575\ngini = 0.5\nsamples = 150\nvalue = [76, 74]"] ;
1 -> 2 ;
3 [label="X[1] <= 120.985\ngini = 0.475\nsamples = 67\nvalue = [41, 26]"] ;
2 -> 3 ;
4 [label="X[3] <= 118.165\ngini = 0.489\nsamples = 61\nvalue = [35, 26]"] ;
3 -> 4 ;
5 [label="X[1] <= 117.08\ngini = 0.474\nsamples = 57\nvalue = [35, 22]"] ;
4 -> 5 ;
6 [label="X[2] <= 117.885\ngini = 0.495\nsamples = 49\nvalue = [27, 22]"] ;
5 -> 6 ;
7 [label="X[1] <= 115.5\ngini = 0.474\nsamples = 44\nvalue = [27, 17]"] ;
6 -> 7 ;
8 [label="X[2] <= 116.045\ngini = 0.497\nsamples = 37\nvalue = [20, 17]"] ;
7 -> 8 ;
9 [label="X[1] <= 114.47\ngini = 0.469\nsamples = 32\nvalue = [20, 12]"] ;
8 -> 9 ;
10 [label="X[3] <= 112.47\ngini = 0.497\nsamples = 26\nvalue = [14, 12]"] ;
9 -> 10 ;
11 [label="X[1] <= 112.715\ngini = 0.444\nsamples = 21\nvalue = [14, 7]"] ;
10 -> 11 ;
12 [label="X[3] <= 105.452\ngini = 0.498\nsamples = 15\nvalue = [8, 7]"] ;
11 -> 12 ;
13 [label="gini = 0.0\nsamples = 5\nvalue = [5, 0]"] ;
12 -> 13 ;
14 [label="X[4] <= 2.12\ngini = 0.42\nsamples = 10\nvalue = [3, 7]"] ;
12 -> 14 ;
15 [label="gini = 0.0\nsamples = 4\nvalue = [0, 4]"] ;
14 -> 15 ;
16 [label="X[0] <= 17076080.0\ngini = 0.5\nsamples = 6\nvalue = [3, 3]"] ;
14 -> 16 ;
17 [label="X[0] <= 12142010.0\ngini = 0.375\nsamples = 4\nvalue = [1, 3]"] ;
16 -> 17 ;
18 [label="X[2] <= 110.57\ngini = 0.5\nsamples = 2\nvalue = [1, 1]"] ;
17 -> 18 ;
19 [label="gini = 0.0\nsamples = 1\nvalue = [1, 0]"] ;
18 -> 19 ;
20 [label="gini = 0.0\nsamples = 1\nvalue = [0, 1]"] ;
18 -> 20 ;
21 [label="gini = 0.0\nsamples = 2\nvalue = [0, 2]"] ;
17 -> 21 ;
22 [label="gini = 0.0\nsamples = 2\nvalue = [2, 0]"] ;
16 -> 22 ;
23 [label="gini = 0.0\nsamples = 6\nvalue = [6, 0]"] ;
11 -> 23 ;
24 [label="gini = 0.0\nsamples = 5\nvalue = [0, 5]"] ;
10 -> 24 ;
25 [label="gini = 0.0\nsamples = 6\nvalue = [6, 0]"] ;
9 -> 25 ;
26 [label="gini = 0.0\nsamples = 5\nvalue = [0, 5]"] ;
8 -> 26 ;
27 [label="gini = 0.0\nsamples = 7\nvalue = [7, 0]"] ;
7 -> 27 ;
28 [label="gini = 0.0\nsamples = 5\nvalue = [0, 5]"] ;
6 -> 28 ;
29 [label="gini = 0.0\nsamples = 8\nvalue = [8, 0]"] ;
5 -> 29 ;
30 [label="gini = 0.0\nsamples = 4\nvalue = [0, 4]"] ;
4 -> 30 ;
31 [label="gini = 0.0\nsamples = 6\nvalue = [6, 0]"] ;
3 -> 31 ;
32 [label="X[1] <= 130.96\ngini = 0.488\nsamples = 83\nvalue = [35, 48]"] ;
2 -> 32 ;
33 [label="X[0] <= 17179285.0\ngini = 0.342\nsamples = 32\nvalue = [7, 25]"] ;
32 -> 33 ;
34 [label="X[0] <= 13476215.0\ngini = 0.198\nsamples = 27\nvalue = [3, 24]"] ;
33 -> 34 ;
35 [label="gini = 0.0\nsamples = 17\nvalue = [0, 17]"] ;
34 -> 35 ;
36 [label="X[0] <= 15388170.0\ngini = 0.42\nsamples = 10\nvalue = [3, 7]"] ;
34 -> 36 ;
37 [label="X[3] <= 126.865\ngini = 0.375\nsamples = 4\nvalue = [3, 1]"] ;
36 -> 37 ;
38 [label="gini = 0.0\nsamples = 3\nvalue = [3, 0]"] ;
37 -> 38 ;
39 [label="gini = 0.0\nsamples = 1\nvalue = [0, 1]"] ;
37 -> 39 ;
40 [label="gini = 0.0\nsamples = 6\nvalue = [0, 6]"] ;
36 -> 40 ;
41 [label="X[0] <= 20170765.0\ngini = 0.32\nsamples = 5\nvalue = [4, 1]"] ;
33 -> 41 ;
42 [label="gini = 0.0\nsamples = 4\nvalue = [4, 0]"] ;
41 -> 42 ;
43 [label="gini = 0.0\nsamples = 1\nvalue = [0, 1]"] ;
41 -> 43 ;
44 [label="X[3] <= 130.065\ngini = 0.495\nsamples = 51\nvalue = [28, 23]"] ;
32 -> 44 ;
45 [label="gini = 0.0\nsamples = 7\nvalue = [7, 0]"] ;
44 -> 45 ;
46 [label="X[0] <= 9380528.0\ngini = 0.499\nsamples = 44\nvalue = [21, 23]"] ;
44 -> 46 ;
47 [label="X[0] <= 8626812.5\ngini = 0.42\nsamples = 20\nvalue = [6, 14]"] ;
46 -> 47 ;
48 [label="X[0] <= 7988513.0\ngini = 0.494\nsamples = 9\nvalue = [5, 4]"] ;
47 -> 48 ;
49 [label="X[3] <= 138.75\ngini = 0.32\nsamples = 5\nvalue = [1, 4]"] ;
48 -> 49 ;
50 [label="gini = 0.0\nsamples = 4\nvalue = [0, 4]"] ;
49 -> 50 ;
51 [label="gini = 0.0\nsamples = 1\nvalue = [1, 0]"] ;
49 -> 51 ;
52 [label="gini = 0.0\nsamples = 4\nvalue = [4, 0]"] ;
48 -> 52 ;
53 [label="X[1] <= 138.115\ngini = 0.165\nsamples = 11\nvalue = [1, 10]"] ;
47 -> 53 ;
54 [label="gini = 0.0\nsamples = 7\nvalue = [0, 7]"] ;
53 -> 54 ;
55 [label="X[4] <= 4.215\ngini = 0.375\nsamples = 4\nvalue = [1, 3]"] ;
53 -> 55 ;
56 [label="gini = 0.0\nsamples = 1\nvalue = [1, 0]"] ;
55 -> 56 ;
57 [label="gini = 0.0\nsamples = 3\nvalue = [0, 3]"] ;
55 -> 57 ;
58 [label="X[1] <= 136.872\ngini = 0.469\nsamples = 24\nvalue = [15, 9]"] ;
46 -> 58 ;
59 [label="X[2] <= 137.21\ngini = 0.499\nsamples = 19\nvalue = [10, 9]"] ;
58 -> 59 ;
60 [label="X[1] <= 131.83\ngini = 0.408\nsamples = 14\nvalue = [10, 4]"] ;
59 -> 60 ;
61 [label="X[0] <= 12327080.0\ngini = 0.375\nsamples = 4\nvalue = [1, 3]"] ;
60 -> 61 ;
62 [label="gini = 0.0\nsamples = 2\nvalue = [0, 2]"] ;
61 -> 62 ;
63 [label="X[4] <= 0.265\ngini = 0.5\nsamples = 2\nvalue = [1, 1]"] ;
61 -> 63 ;
64 [label="gini = 0.0\nsamples = 1\nvalue = [0, 1]"] ;
63 -> 64 ;
65 [label="gini = 0.0\nsamples = 1\nvalue = [1, 0]"] ;
63 -> 65 ;
66 [label="X[0] <= 15977920.0\ngini = 0.18\nsamples = 10\nvalue = [9, 1]"] ;
60 -> 66 ;
67 [label="gini = 0.0\nsamples = 9\nvalue = [9, 0]"] ;
66 -> 67 ;
68 [label="gini = 0.0\nsamples = 1\nvalue = [0, 1]"] ;
66 -> 68 ;
69 [label="gini = 0.0\nsamples = 5\nvalue = [0, 5]"] ;
59 -> 69 ;
70 [label="gini = 0.0\nsamples = 5\nvalue = [5, 0]"] ;
58 -> 70 ;
71 [label="gini = 0.0\nsamples = 8\nvalue = [8, 0]"] ;
1 -> 71 ;
72 [label="gini = 0.0\nsamples = 9\nvalue = [0, 9]"] ;
0 -> 72 [labeldistance=2.5, labelangle=-45, headlabel="False"] ;
}
